digraph Tree {
node [shape=box, style="filled, rounded", color="black", fontname=helvetica] ;
edge [fontname=helvetica] ;
0 [label="Sex <= 0.5\ngini = 0.472\nsamples = 889\nvalue = [549, 340]\nclass = did not survive", fillcolor="#f5cfb4"] ;
1 [label="Pclass <= 2.5\ngini = 0.384\nsamples = 312\nvalue = [81, 231]\nclass = survived", fillcolor="#7ebfee"] ;
0 -> 1 [labeldistance=2.5, labelangle=45, headlabel="True"] ;
2 [label="gini = 0.101\nsamples = 168\nvalue = [9, 159]\nclass = survived", fillcolor="#44a3e6"] ;
1 -> 2 ;
3 [label="famSize <= 3.5\ngini = 0.5\nsamples = 144\nvalue = [72, 72]\nclass = did not survive", fillcolor="#ffffff"] ;
1 -> 3 ;
4 [label="Embarked <= 1.5\ngini = 0.484\nsamples = 117\nvalue = [48, 69]\nclass = survived", fillcolor="#c3e1f7"] ;
3 -> 4 ;
5 [label="gini = 0.413\nsamples = 55\nvalue = [16, 39]\nclass = survived", fillcolor="#8ac5f0"] ;
4 -> 5 ;
6 [label="gini = 0.499\nsamples = 62\nvalue = [32, 30]\nclass = did not survive", fillcolor="#fdf7f3"] ;
4 -> 6 ;
7 [label="gini = 0.198\nsamples = 27\nvalue = [24, 3]\nclass = did not survive", fillcolor="#e89152"] ;
3 -> 7 ;
8 [label="Pclass <= 1.5\ngini = 0.306\nsamples = 577\nvalue = [468, 109]\nclass = did not survive", fillcolor="#eb9e67"] ;
0 -> 8 [labeldistance=2.5, labelangle=-45, headlabel="False"] ;
9 [label="Age <= 4.5\ngini = 0.466\nsamples = 122\nvalue = [77, 45]\nclass = did not survive", fillcolor="#f4cbad"] ;
8 -> 9 ;
10 [label="Fare <= 6.5\ngini = 0.491\nsamples = 23\nvalue = [10, 13]\nclass = survived", fillcolor="#d1e8f9"] ;
9 -> 10 ;
11 [label="gini = 0.346\nsamples = 9\nvalue = [2, 7]\nclass = survived", fillcolor="#72b9ec"] ;
10 -> 11 ;
12 [label="famSize <= 1.5\ngini = 0.49\nsamples = 14\nvalue = [8, 6]\nclass = did not survive", fillcolor="#f8e0ce"] ;
10 -> 12 ;
13 [label="gini = 0.375\nsamples = 8\nvalue = [6, 2]\nclass = did not survive", fillcolor="#eeab7b"] ;
12 -> 13 ;
14 [label="gini = 0.444\nsamples = 6\nvalue = [2, 4]\nclass = survived", fillcolor="#9ccef2"] ;
12 -> 14 ;
15 [label="Fare <= 2.5\ngini = 0.438\nsamples = 99\nvalue = [67, 32]\nclass = did not survive", fillcolor="#f1bd98"] ;
9 -> 15 ;
16 [label="gini = 0.0\nsamples = 6\nvalue = [6, 0]\nclass = did not survive", fillcolor="#e58139"] ;
15 -> 16 ;
17 [label="Age <= 7.5\ngini = 0.451\nsamples = 93\nvalue = [61, 32]\nclass = did not survive", fillcolor="#f3c3a1"] ;
15 -> 17 ;
18 [label="gini = 0.497\nsamples = 28\nvalue = [15, 13]\nclass = did not survive", fillcolor="#fceee5"] ;
17 -> 18 ;
19 [label="gini = 0.414\nsamples = 65\nvalue = [46, 19]\nclass = did not survive", fillcolor="#f0b58b"] ;
17 -> 19 ;
20 [label="Age <= 0.5\ngini = 0.242\nsamples = 455\nvalue = [391, 64]\nclass = did not survive", fillcolor="#e99659"] ;
8 -> 20 ;
21 [label="famSize <= 3.5\ngini = 0.475\nsamples = 49\nvalue = [30, 19]\nclass = did not survive", fillcolor="#f5d1b6"] ;
20 -> 21 ;
22 [label="famSize <= 0.5\ngini = 0.459\nsamples = 28\nvalue = [10, 18]\nclass = survived", fillcolor="#a7d3f3"] ;
21 -> 22 ;
23 [label="gini = 0.219\nsamples = 8\nvalue = [7, 1]\nclass = did not survive", fillcolor="#e99355"] ;
22 -> 23 ;
24 [label="gini = 0.255\nsamples = 20\nvalue = [3, 17]\nclass = survived", fillcolor="#5caeea"] ;
22 -> 24 ;
25 [label="gini = 0.091\nsamples = 21\nvalue = [20, 1]\nclass = did not survive", fillcolor="#e68743"] ;
21 -> 25 ;
26 [label="gini = 0.197\nsamples = 406\nvalue = [361, 45]\nclass = did not survive", fillcolor="#e89152"] ;
20 -> 26 ;
}